tree
version=v4
num_class=1
num_tree_per_iteration=1
label_index=0
max_feature_idx=51
objective=binary sigmoid:1
feature_names=open high low close volume ma5 ma5_ratio ma10 ma10_ratio ma20 ma20_ratio ma60 ma60_ratio ma5_10_diff ma10_20_diff macd macd_signal macd_hist macd_ratio rsi6 rsi12 rsi24 bb_middle bb_upper bb_lower bb_width bb_position volume_ma5 volume_ma20 volume_ratio volume_change return_1d return_3d return_5d return_10d return_20d volatility_5d volatility_10d volatility_20d kdj_k kdj_d kdj_j high_low_ratio price_range close_lag1 return_lag1 close_lag2 return_lag2 close_lag3 return_lag3 close_lag5 return_lag5
feature_infos=[-1.6904598273501839:2.2469790533701288] [-1.6045165507549815:2.4437813058063016] [-1.7506226590558647:2.3196197750903105] [-1.5956177138913801:2.3931762217358914] [-1.6643597499177727:1.8918823704153296] [-1.4646594511984248:2.0139434969636136] [-1.8236932888546773:3.6387184575704374] [-1.4377118630426158:2.0498256586625758] [-1.6463919284814259:3.230981900805332] [-1.3274770068340764:1.9172026544499057] [-1.7141290976990897:3.1960599055681311] [-1.2385723372991:1.2270957231326691] [-2.3809689893855857:2.6941748550531175] [-1.8204019931826045:4.0045977700558861] [-1.3095150976022822:3.3233238474188473] [-1.6764110945603803:2.6890257993710103] [-2.2952828863952304:2.5269646609018284] [-1.7657649470404633:2.8545804187701243] [-1.7655592174878927:2.4832941499449075] [-2.3685422235601599:2.398458794212162] [-2.9467688466635731:2.504000028145982] [-1.7648717195145096:2.5432332932443384] [-1.3274770068340764:1.9172026544499057] [-1.4582612785321298:2.1356391548059523] [-1.2405443717490763:2.2490263088951843] [-1.085568184969514:3.4399443325199615] [-1.9500862809318846:2.7195870410696408] [-2.328328547729225:3.0530455993442929] [-2.4413464184073104:2.3387476914133614] [-1.7678737677570424:2.8149403212265085] [-1.1749920162508958:5.2302353065914078] [-2.6376938735466093:3.8099462623639195] [-1.7979224884816325:3.5463598748729233] [-1.8188628863470393:3.7919597430856555] [-1.7070707531708909:3.5198666722005596] [-1.5186166398199203:3.0836858704158758] [-1.8465429702990908:2.3422560339474585] [-2.1655114789962959:1.9161500794605115] [-2.3704935008434451:2.2264936806447961] [-1.9169548565818424:2.2430731070922598] [-1.9732259182576859:2.3142235264069493] [-2.4815866566560452:2.3083159825374571] [-2.1490487563498926:1.9709624303071527] [-2.05581771382754:3.0783627150087542] [-1.5897807422650791:2.3958937633754558] [-2.6376754536618594:3.8101853745433991] [-1.5834375399749279:2.3976791155425272] [-2.6359282401729947:3.8196332907522024] [-1.5785033087411553:2.3984347705639752] [-2.6328299422103822:3.8177276941759102] [-1.5689570708681737:2.4030583027011367] [-2.6357901551454694:3.7945498835737759]
tree_sizes=656 665 771 769 666 774 672 676 667 780 778 777 779 785 781 773 775 772 775 772 673 781 676 673 775

Tree=0
num_leaves=5
num_cat=0
split_feature=38 21 39 5
split_gain=20.7396 8.36539 8.24505 1.83918
threshold=1.0000000180025095e-35 0.071700872680713665 0.081783861178421888 -1.1459150398359415
decision_type=2 2 2 2
left_child=1 3 -2 -1
right_child=2 -3 -4 -5
leaf_value=0.23270478754588098 0.14496785603577125 0.13735198950695432 0.069897171680290054 0.19496046137634948
leaf_weight=5.2208861410617819 7.7070223987102491 5.7181133925914756 6.9611815214157104 8.452863276004793
leaf_count=21 31 23 28 34
internal_value=0.154202 0.188135 0.109341 0.209372
internal_weight=34.0601 19.3919 14.6682 13.6737
internal_count=137 78 59 55
is_linear=0
shrinkage=1


Tree=1
num_leaves=5
num_cat=0
split_feature=28 30 27 21
split_gain=21.9869 8.61453 7.441 6.38354
threshold=0.4644554826524222 0.030202126059793912 -0.93246627236559754 -0.5827536637037638
decision_type=2 2 2 2
left_child=2 -2 -1 -4
right_child=1 -3 3 -5
leaf_value=-0.017832741639736312 -0.080414792466439677 0.003936857063433905 0.084310721986263798 0.021808528084484358
leaf_weight=4.9669186025857917 7.7187527269124967 4.9794126898050308 7.9127121269702938 8.4453524798154849
leaf_count=20 31 20 32 34
internal_value=0.00475073 -0.0473374 0.0357671 0.052042
internal_weight=34.0231 12.6982 21.325 16.3581
internal_count=137 51 86 66
is_linear=0
shrinkage=0.05


Tree=2
num_leaves=6
num_cat=0
split_feature=28 30 27 43 31
split_gain=19.8684 7.7355 6.77059 5.9422 0.901502
threshold=0.4644554826524222 0.030202126059793912 -0.93246627236559754 -0.14364245508020188 0.20097343434289669
decision_type=2 2 2 2 2
left_child=2 -2 -1 4 -4
right_child=1 -3 3 -5 -6
leaf_value=-0.016918587451240388 -0.076148260965093501 0.0037409465628575594 0.089271016131080239 0.012292481336109174 0.059014279836538258
leaf_weight=4.9733555018901816 7.7429198026657087 4.9782029241323471 4.9227220416069049 6.412900015711787 4.9247002303600311
leaf_count=20 31 20 20 26 20
internal_value=0.00452913 -0.0448849 0.0341332 0.0497478 0.0741396
internal_weight=33.9548 12.7211 21.2337 16.2603 9.84742
internal_count=137 51 86 66 40
is_linear=0
shrinkage=0.05


Tree=3
num_leaves=6
num_cat=0
split_feature=28 38 4 19 31
split_gain=17.9795 6.39861 4.57497 3.67897 1.64993
threshold=0.4644554826524222 0.15170857109004801 -0.66975603368445502 0.37922291434687394 0.25578711122437603
decision_type=2 2 2 2 2
left_child=1 2 -1 -2 -4
right_child=3 -3 4 -5 -6
leaf_value=0.0096133710808863557 -0.019214425929774348 -0.012669064129099806 0.086524264507354287 -0.07350559509200294 0.046783251163359761
leaf_weight=4.9341265410184851 7.2304322868585569 5.7008913606405249 5.6001711934804934 5.489401638507843 4.8941997438669205
leaf_count=20 29 23 23 22 20
internal_value=0.00432198 0.0325956 0.0493211 -0.0426445 0.0679905
internal_weight=33.8492 21.1294 15.4285 12.7198 10.4944
internal_count=137 86 63 51 43
is_linear=0
shrinkage=0.05


Tree=4
num_leaves=5
num_cat=0
split_feature=28 30 27 21
split_gain=16.2787 7.06036 5.99699 5.66044
threshold=0.4644554826524222 0.030202126059793912 -0.93246627236559754 -0.5827536637037638
decision_type=2 2 2 2
left_child=2 -2 -1 -4
right_child=1 -3 3 -5
leaf_value=-0.016839147207954767 -0.070441946706142886 0.0058673298071057461 0.077013445262938962 0.017554820583545939
leaf_weight=4.9695752263069144 7.7307372242212278 4.9862732887268066 7.6795492023229626 8.3604172021150607
leaf_count=20 31 20 32 34
internal_value=0.00412727 -0.0405215 0.031153 0.0460222
internal_weight=33.7266 12.717 21.0095 16.04
internal_count=137 51 86 66
is_linear=0
shrinkage=0.05


Tree=5
num_leaves=6
num_cat=0
split_feature=21 11 19 47 32
split_gain=18.0495 8.65555 9.25005 3.12616 2.19958
threshold=-0.46085321953545094 -0.96770494778695026 -0.61631580590914203 0.55433144815128543 -0.37771920728062075
decision_type=2 2 2 2 2
left_child=4 -2 -3 -4 -1
right_child=1 2 3 -5 -6
leaf_value=0.022956082388178565 0.027065765420769168 0.011457234187085448 -0.048322195294232415 -0.097120584092956666 0.068388846210300988
leaf_weight=4.812151625752449 5.411943405866622 5.4468625336885479 9.6848177164793032 4.9643461257219306 5.9679744094610196
leaf_count=20 22 22 39 20 25
internal_value=-0.00613525 -0.0290594 -0.0441742 -0.0648591 0.0481081
internal_weight=36.2881 25.508 20.096 14.6492 10.7801
internal_count=148 103 81 59 45
is_linear=0
shrinkage=0.05


Tree=6
num_leaves=5
num_cat=0
split_feature=28 31 9 38
split_gain=18.0481 6.50801 6.49651 5.45896
threshold=0.61180772755433033 -0.26279978643119173 -0.80294930128969455 -0.37370482902612273
decision_type=2 2 2 2
left_child=2 -2 -1 -4
right_child=1 -3 3 -5
leaf_value=0.055257517893570418 -0.092871624346078985 -0.021828788417030353 0.034152363074467861 -0.027667745650426952
leaf_weight=8.5914576649665815 5.691692128777504 7.4342207610607129 6.526540130376814 7.8856318145990407
leaf_count=36 23 30 27 32
internal_value=-0.00585158 -0.0526346 0.0208429 0.000327439
internal_weight=36.1295 13.1259 23.0036 14.4122
internal_count=148 53 95 59
is_linear=0
shrinkage=0.05


Tree=7
num_leaves=5
num_cat=0
split_feature=28 21 30 43
split_gain=16.3756 7.64181 4.61304 2.70624
threshold=0.61180772755433033 0.071700872680713665 -0.21138907142695465 -1.0000000180025095e-35
decision_type=2 2 2 2
left_child=1 3 -2 -1
right_child=2 -3 -4 -5
leaf_value=0.062398617744464993 -0.075437174681419111 -0.017176941963740245 -0.015196492202278911 0.018646441332059387
leaf_weight=7.7380123883485776 7.6019436568021774 8.6448036283254606 5.4608173668384534 6.5058736801147496
leaf_count=33 31 35 22 27
internal_value=-0.00558512 0.0199077 -0.0502539 0.0424149
internal_weight=35.9515 22.8887 13.0628 14.2439
internal_count=148 95 53 60
is_linear=0
shrinkage=0.05


Tree=8
num_leaves=5
num_cat=0
split_feature=28 21 31 4
split_gain=14.8841 6.96986 5.96352 3.0109
threshold=0.61180772755433033 0.071700872680713665 -0.26279978643119173 0.17063472473064276
decision_type=2 2 2 2
left_child=1 3 -2 -1
right_child=2 -3 -4 -5
leaf_value=0.022712134384576425 -0.087061451796561384 -0.016295365309272107 -0.018602480890805427 0.070364205971225266
leaf_weight=8.7837080657482165 5.5861001461744308 8.6565470546483976 7.3889383524656278 5.3242498040199271
leaf_count=37 23 35 30 23
internal_value=-0.00533624 0.019024 -0.0480759 0.0406957
internal_weight=35.7395 22.7645 12.975 14.108
internal_count=148 95 53 60
is_linear=0
shrinkage=0.05


Tree=9
num_leaves=6
num_cat=0
split_feature=9 24 16 19 9
split_gain=10.2314 6.86922 5.71429 4.95354 1.84976
threshold=-0.80985367677369002 0.13231080036915335 -0.50498338092616957 -0.61631580590914203 -0.51789591089559139
decision_type=2 2 2 2 2
left_child=2 3 -1 -2 -5
right_child=1 -3 -4 4 -6
leaf_value=0.070163953828349876 0.00047251661136306106 0.017529204402980007 -0.0036694966596867102 -0.035260221480037893 -0.074581234748883271
leaf_weight=5.6941546946763992 5.3303789794445064 7.4862122237682334 4.8549050688743574 5.3256302326917666 6.8225039392709732
leaf_count=25 22 31 20 22 28
internal_value=-0.00510107 -0.0225465 0.0361842 -0.0397113 -0.0573433
internal_weight=35.5138 24.9647 10.5491 17.4785 12.1481
internal_count=148 103 45 72 50
is_linear=0
shrinkage=0.05


Tree=10
num_leaves=6
num_cat=0
split_feature=21 25 13 29 31
split_gain=12.1512 6.91527 8.33818 4.90127 1.87967
threshold=-0.5827536637037638 -0.39899782093413511 -0.48344521494812681 0.44140992104481014 -0.063134934406249635
decision_type=2 2 2 2 2
left_child=4 -2 -3 -4 -1
right_child=1 2 3 -5 -6
leaf_value=0.021016639513733056 -0.060176370826581782 0.049622051443047273 -0.052214294182873301 0.011754519522899779 0.065836283043999175
leaf_weight=4.8987145274877548 8.7527846395969409 4.8972609788179424 7.6794375330209714 4.9082897007465363 4.4773877859115583
leaf_count=21 36 20 32 20 20
internal_value=-0.00643714 -0.0238961 -0.00573462 -0.0272712 0.0424194
internal_weight=35.6139 26.2378 17.485 12.5877 9.3761
internal_count=149 108 72 52 41
is_linear=0
shrinkage=0.05


Tree=11
num_leaves=6
num_cat=0
split_feature=21 25 13 29 31
split_gain=11.0584 6.22008 7.54556 4.46293 1.77504
threshold=-0.5827536637037638 -0.39899782093413511 -0.48344521494812681 0.44140992104481014 -0.063134934406249635
decision_type=2 2 2 2 2
left_child=4 -2 -3 -4 -1
right_child=1 2 3 -5 -6
leaf_value=0.020065895417885716 -0.057116366547665755 0.047203297367073391 -0.049955774344543187 0.011165020881321687 0.06391269377196733
leaf_weight=4.8748999685049057 8.7603648304939288 4.8909340500831631 7.6266365200281125 4.9090473800897598 4.3839167952537519
leaf_count=21 36 20 32 20 20
internal_value=-0.00614092 -0.0227471 -0.0054696 -0.0260205 0.0408267
internal_weight=35.4458 26.187 17.4266 12.5357 9.25882
internal_count=149 108 72 52 41
is_linear=0
shrinkage=0.05


Tree=12
num_leaves=6
num_cat=0
split_feature=5 43 29 33 16
split_gain=10.193 6.87763 6.57676 6.02265 4.93904
threshold=-1.1739068767977698 0.76264787181639015 1.0000000180025095e-35 -0.18507256076824632 0.38821473702853065
decision_type=2 2 2 2 2
left_child=-1 2 3 -2 -4
right_child=1 -3 4 -5 -6
leaf_value=0.063696554588464058 0.0040538097342011038 -0.062785197181315353 0.045486912920771852 -0.067542662964852312 -0.018923072480872192
leaf_weight=4.581922620534896 5.9798597097396851 6.3083529472351065 7.7901209592819196 5.7728862017393165 4.8164765685796738
leaf_count=21 25 26 33 24 20
internal_value=-0.00586353 -0.0162562 -0.00420655 -0.031114 0.0208784
internal_weight=35.2496 30.6677 24.3593 11.7527 12.6066
internal_count=149 128 102 49 53
is_linear=0
shrinkage=0.05


Tree=13
num_leaves=6
num_cat=0
split_feature=5 43 29 38 29
split_gain=9.37183 6.25124 5.95784 5.91017 5.60551
threshold=-1.1739068767977698 0.76264787181639015 -1.0000000180025095e-35 -0.29248097185319299 -0.70040067267613038
decision_type=2 2 2 2 2
left_child=-1 2 4 -4 -2
right_child=1 -3 3 -5 -6
leaf_value=0.061945021994550042 -0.00095617380968659722 -0.060006734453435552 0.065178710136666859 -0.0060568363635250021 -0.07135163827689836
leaf_weight=4.4785392433404914 6.9313351660966873 6.2713423669338217 4.5797025859355944 7.9944008737802488 4.7767954319715535
leaf_count=21 29 26 20 33 20
internal_value=-0.00560289 -0.0155041 -0.0040104 0.0198884 -0.0296768
internal_weight=35.0321 30.5536 24.2822 12.5741 11.7081
internal_count=149 128 102 53 49
is_linear=0
shrinkage=0.05


Tree=14
num_leaves=6
num_cat=0
split_feature=38 33 35 29 23
split_gain=8.13261 7.22402 5.04894 4.4908 4.3835
threshold=-0.40476958261508161 -0.20327739866365338 0.39578623747286218 -1.0000000180025095e-35 -0.49951749062663292
decision_type=2 2 2 2 2
left_child=3 2 -2 -1 -3
right_child=1 4 -4 -5 -6
leaf_value=-0.0059044998317923543 -0.028331932557692348 -0.014622658577967554 0.041548326262448268 0.052653635825300062 -0.077925517452669207
leaf_weight=6.081869050860405 5.2647500932216644 4.6484165787696821 5.0779168158769608 7.0918734371662122 6.6427468806505221
leaf_count=26 22 20 21 32 28
internal_value=-0.00535202 -0.0242118 0.00597703 0.0256193 -0.0518646
internal_weight=34.8076 21.6338 10.3427 13.1737 11.2912
internal_count=149 91 43 58 48
is_linear=0
shrinkage=0.05


Tree=15
num_leaves=6
num_cat=0
split_feature=38 37 41 24 21
split_gain=11.0339 8.2366 5.21183 3.36344 4.51804
threshold=-0.20835743013345184 0.63952569021758843 0.042665192358821914 -0.9656476259541007 -0.40913485563441637
decision_type=2 2 2 2 2
left_child=3 2 -2 -1 -5
right_child=1 -3 -4 4 -6
leaf_value=0.073322004360593315 -0.011277816643419369 0.021545048424876367 -0.083884125025462386 0.053456262073500585 -0.0094610885529897524
leaf_weight=5.5373860150575664 5.2533942610025424 8.540116533637045 4.6676612049341202 6.527904838323594 5.0689048618078205
leaf_count=25 22 36 20 30 21
internal_value=0.0123673 -0.0144515 -0.0454377 0.0412632 0.0259554
internal_weight=35.5954 18.4612 9.92106 17.1342 11.5968
internal_count=154 78 42 76 51
is_linear=0
shrinkage=0.05


Tree=16
num_leaves=6
num_cat=0
split_feature=38 37 41 4 30
split_gain=10.0962 7.49568 4.87252 2.29468 1.70124
threshold=-0.20835743013345184 0.63952569021758843 0.042665192358821914 -0.76626231754090512 1.0000000180025095e-35
decision_type=2 2 2 2 2
left_child=3 2 -2 -1 -5
right_child=1 -3 -4 4 -6
leaf_value=0.010404067684630551 -0.010712572010683883 0.020428888444862819 -0.081272606828519847 0.071020412067866454 0.033520130455322539
leaf_weight=4.7834941297769573 5.2540398389101046 8.5559561252593976 4.5789968818426132 5.7501639276742917 6.3800913542509079
leaf_count=20 22 36 20 27 29
internal_value=0.0118508 -0.0137932 -0.0435706 0.0397315 0.0512966
internal_weight=35.3027 18.389 9.83304 16.9137 12.1303
internal_count=154 78 42 76 56
is_linear=0
shrinkage=0.05


Tree=17
num_leaves=6
num_cat=0
split_feature=38 37 19 24 10
split_gain=9.22464 6.82863 4.04667 3.08121 3.8985
threshold=-0.20835743013345184 0.63952569021758843 0.031050347210356218 -0.9656476259541007 -0.19612872095412545
decision_type=2 2 2 2 2
left_child=3 2 -2 -1 -5
right_child=1 -3 -4 4 -6
leaf_value=0.069533027038692158 -0.0087999132465585352 0.019376195418075465 -0.073289642780449457 0.051204510743721045 -0.0074099096734925457
leaf_weight=5.3396259099245098 4.7500440925359744 8.569393724203108 4.9857549369335175 6.000871717929841 5.380182117223737
leaf_count=25 20 36 22 28 23
internal_value=0.0113494 -0.0131745 -0.0418254 0.0381973 0.0234956
internal_weight=35.0259 18.3052 9.7358 16.7207 11.3811
internal_count=154 78 42 76 51
is_linear=0
shrinkage=0.05


Tree=18
num_leaves=6
num_cat=0
split_feature=38 37 19 24 21
split_gain=8.44157 6.21781 3.77643 2.89578 4.03075
threshold=-0.20835743013345184 0.63952569021758843 0.031050347210356218 -0.9656476259541007 -0.40913485563441637
decision_type=2 2 2 2 2
left_child=3 2 -2 -1 -5
right_child=1 -3 -4 4 -6
leaf_value=0.067559095418569623 -0.0083613405819622632 0.018382464551491968 -0.070942891417892076 0.049454005656895984 -0.010646805576101497
leaf_weight=5.2238046675920513 4.7492562681436556 8.5807072073221189 4.8954387009143829 6.227461740374566 5.0536571443080875
leaf_count=25 20 36 22 30 21
internal_value=0.0108784 -0.0125798 -0.0401264 0.0367819 0.0225304
internal_weight=34.7303 18.2254 9.64469 16.5049 11.2811
internal_count=154 78 42 76 51
is_linear=0
shrinkage=0.05


Tree=19
num_leaves=6
num_cat=0
split_feature=38 37 41 24 21
split_gain=7.73548 5.71559 5.47685 2.72319 3.72497
threshold=-0.20835743013345184 0.81572874299354725 0.065462963483129563 -0.9656476259541007 -0.40913485563441637
decision_type=2 2 2 2 2
left_child=3 2 -2 -1 -5
right_child=1 -3 -4 4 -6
leaf_value=0.065720016166682313 -0.0045803688707527681 0.021829187963186364 -0.076774141600438134 0.047906494753984979 -0.010108734422666568
leaf_weight=5.1045245379209545 6.1752173304557818 7.3904753625392905 4.5721708089113235 6.1102042347192773 5.0564478039741489
leaf_count=25 26 31 21 30 21
internal_value=0.010436 -0.012018 -0.0352932 0.035466 0.0216362
internal_weight=34.409 18.1379 10.7474 16.2712 11.1667
internal_count=154 78 47 76 51
is_linear=0
shrinkage=0.05


Tree=20
num_leaves=5
num_cat=0
split_feature=24 41 47 30
split_gain=7.84521 4.91816 5.94903 4.83709
threshold=-0.93472547500480718 -0.29229001064342536 -0.53256736409738237 -0.012463067223359015
decision_type=2 2 2 2
left_child=-1 2 -2 -3
right_child=1 3 -4 -5
leaf_value=0.041808781421598745 -0.029821033213059844 -0.058735268564842326 0.04569610240086161 0.00297340315267983
leaf_weight=7.879189774394038 4.938703328371048 8.4628516584634799 5.5259513407945686 5.0830210447311321
leaf_count=38 21 39 23 22
internal_value=-0.00148316 -0.0156897 0.0100564 -0.0355794
internal_weight=31.8897 24.0105 10.4647 13.5459
internal_count=143 105 44 61
is_linear=0
shrinkage=0.05


Tree=21
num_leaves=6
num_cat=0
split_feature=21 25 41 30 42
split_gain=6.18828 8.22676 6.09751 5.04155 2.74408
threshold=-0.46085321953545094 -0.39899782093413511 -0.50781444604731452 -0.41360464650476558 -0.14651852200384893
decision_type=2 2 2 2 2
left_child=4 -2 -3 -4 -1
right_child=1 2 3 -5 -6
leaf_value=0.0057376959413480534 -0.064693500561983572 0.044032582602176261 -0.059566473984910717 0.0095394207504773867 0.061577793540068065
leaf_weight=4.3159607648849487 6.1287718117237118 5.8787401616573396 4.5160103887319618 6.3505521416664017 4.4878498613834399
leaf_count=22 27 24 21 27 22
internal_value=-0.00141873 -0.0151288 0.00301182 -0.0191801 0.0342029
internal_weight=31.6779 22.8741 16.7453 10.8666 8.80381
internal_count=143 99 72 48 44
is_linear=0
shrinkage=0.05


Tree=22
num_leaves=5
num_cat=0
split_feature=24 41 47 30
split_gain=7.20508 4.123 5.1689 4.22231
threshold=-0.93472547500480718 -0.29229001064342536 -0.53256736409738237 -0.012463067223359015
decision_type=2 2 2 2
left_child=-1 2 -2 -3
right_child=1 3 -4 -5
leaf_value=0.040457922301869439 -0.028683464155852836 -0.055550699596367936 0.042062711467932418 0.0024858791750716168
leaf_weight=7.7572340667247799 4.9013400822877884 8.2447715848684329 5.4557574540376716 5.0555752366781155
leaf_count=38 21 39 23 22
internal_value=-0.00135915 -0.0150709 0.00858315 -0.0334905
internal_weight=31.4147 23.6574 10.3571 13.3003
internal_count=143 105 44 61
is_linear=0
shrinkage=0.05


Tree=23
num_leaves=5
num_cat=0
split_feature=24 37 37 20
split_gain=6.56923 4.05238 6.05883 3.82449
threshold=-0.93472547500480718 0.57753679556826254 -0.71171328961764679 -0.097691845367597355
decision_type=2 2 2 2
left_child=-1 2 -2 -4
right_child=1 -3 3 -5
leaf_value=0.038877192793865839 0.005030990339557795 0.0178927630968558 -0.02135145495231695 -0.086573844997679977
leaf_weight=7.671231389045718 7.6335879415273729 6.8727751970291129 4.2915270775556627 4.7192053645849148
leaf_count=38 34 29 20 22
internal_value=-0.00130102 -0.0144071 -0.0277443 -0.0555105
internal_weight=31.1883 23.5171 16.6443 9.01073
internal_count=143 105 76 42
is_linear=0
shrinkage=0.05


Tree=24
num_leaves=6
num_cat=0
split_feature=21 25 41 30 31
split_gain=5.35457 7.44893 5.06127 4.4561 2.81
threshold=-0.46085321953545094 -0.39899782093413511 -0.50781444604731452 -0.41360464650476558 -0.063134934406249635
decision_type=2 2 2 2 2
left_child=4 -2 -3 -4 -1
right_child=1 2 3 -5 -6
leaf_value=0.0025206681498343877 -0.062014521839794834 0.040662755778686804 -0.05626061832999675 0.0096099700016661783 0.059772389829208641
leaf_weight=4.1171783655881882 5.9578335881233242 5.8313712626695695 4.3419438600540214 6.2825592756271256 4.4702736437320727
leaf_count=20 27 24 21 27 24
internal_value=-0.00124772 -0.01411 0.00323376 -0.0173095 0.0323236
internal_weight=31.0012 22.4137 16.4559 10.6245 8.58745
internal_count=143 99 72 48 44
is_linear=0
shrinkage=0.05


end of trees

feature_importances:
rsi24=13
volatility_20d=10
volume_change=9
bb_lower=8
volume_ma20=7
return_1d=7
volatility_10d=7
kdj_j=7
volume_ratio=6
rsi6=5
bb_width=4
price_range=4
volume=3
ma5=3
ma20=3
volume_ma5=3
return_lag2=3
ma5_10_diff=2
macd_signal=2
return_5d=2
ma20_ratio=1
ma60=1
rsi12=1
bb_upper=1
return_3d=1
return_20d=1
kdj_k=1
high_low_ratio=1

parameters:
[boosting: gbdt]
[objective: binary]
[metric: auc,binary_logloss]
[tree_learner: serial]
[device_type: cpu]
[data_sample_strategy: bagging]
[data: ]
[valid: ]
[num_iterations: 1000]
[learning_rate: 0.05]
[num_leaves: 31]
[num_threads: -1]
[seed: 42]
[deterministic: 0]
[force_col_wise: 0]
[force_row_wise: 0]
[histogram_pool_size: -1]
[max_depth: -1]
[min_data_in_leaf: 20]
[min_sum_hessian_in_leaf: 0.001]
[bagging_fraction: 0.8]
[pos_bagging_fraction: 1]
[neg_bagging_fraction: 1]
[bagging_freq: 5]
[bagging_seed: 400]
[bagging_by_query: 0]
[feature_fraction: 0.8]
[feature_fraction_bynode: 1]
[feature_fraction_seed: 30056]
[extra_trees: 0]
[extra_seed: 12879]
[early_stopping_round: 50]
[early_stopping_min_delta: 0]
[first_metric_only: 0]
[max_delta_step: 0]
[lambda_l1: 0]
[lambda_l2: 0]
[linear_lambda: 0]
[min_gain_to_split: 0]
[drop_rate: 0.1]
[max_drop: 50]
[skip_drop: 0.5]
[xgboost_dart_mode: 0]
[uniform_drop: 0]
[drop_seed: 17869]
[top_rate: 0.2]
[other_rate: 0.1]
[min_data_per_group: 100]
[max_cat_threshold: 32]
[cat_l2: 10]
[cat_smooth: 10]
[max_cat_to_onehot: 4]
[top_k: 20]
[monotone_constraints: ]
[monotone_constraints_method: basic]
[monotone_penalty: 0]
[feature_contri: ]
[forcedsplits_filename: ]
[refit_decay_rate: 0.9]
[cegb_tradeoff: 1]
[cegb_penalty_split: 0]
[cegb_penalty_feature_lazy: ]
[cegb_penalty_feature_coupled: ]
[path_smooth: 0]
[interaction_constraints: ]
[verbosity: -1]
[saved_feature_importance_type: 0]
[use_quantized_grad: 0]
[num_grad_quant_bins: 4]
[quant_train_renew_leaf: 0]
[stochastic_rounding: 1]
[linear_tree: 0]
[max_bin: 255]
[max_bin_by_feature: ]
[min_data_in_bin: 3]
[bin_construct_sample_cnt: 200000]
[data_random_seed: 175]
[is_enable_sparse: 1]
[enable_bundle: 1]
[use_missing: 1]
[zero_as_missing: 0]
[feature_pre_filter: 1]
[pre_partition: 0]
[two_round: 0]
[header: 0]
[label_column: ]
[weight_column: ]
[group_column: ]
[ignore_column: ]
[categorical_feature: ]
[forcedbins_filename: ]
[precise_float_parser: 0]
[parser_config_file: ]
[objective_seed: 16083]
[num_class: 1]
[is_unbalance: 0]
[scale_pos_weight: 1]
[sigmoid: 1]
[boost_from_average: 1]
[reg_sqrt: 0]
[alpha: 0.9]
[fair_c: 1]
[poisson_max_delta_step: 0.7]
[tweedie_variance_power: 1.5]
[lambdarank_truncation_level: 30]
[lambdarank_norm: 1]
[label_gain: ]
[lambdarank_position_bias_regularization: 0]
[eval_at: ]
[multi_error_top_k: 1]
[auc_mu_weights: ]
[num_machines: 1]
[local_listen_port: 12400]
[time_out: 120]
[machine_list_filename: ]
[machines: ]
[gpu_platform_id: -1]
[gpu_device_id: -1]
[gpu_use_dp: 0]
[num_gpu: 1]

end of parameters

pandas_categorical:null
